digraph Tree {
node [shape=box, style="filled, rounded", color="black", fontname="helvetica"] ;
edge [fontname="helvetica"] ;
0 [label="lstat <= 9.55\nsquared_error = 81.19\nsamples = 354\nvalue = 22.34", fillcolor="#f5ceb3"] ;
1 [label="rm <= 7.43\nsquared_error = 78.71\nsamples = 136\nvalue = 29.99", fillcolor="#f1b991"] ;
0 -> 1 [labeldistance=2.5, labelangle=45, headlabel="True"] ;
2 [label="dis <= 1.48\nsquared_error = 45.06\nsamples = 117\nvalue = 27.67", fillcolor="#f2c09b"] ;
1 -> 2 ;
3 [label="squared_error = 0.0\nsamples = 4\nvalue = 50.0", fillcolor="#e58139"] ;
2 -> 3 ;
4 [label="rm <= 6.54\nsquared_error = 28.37\nsamples = 113\nvalue = 26.88", fillcolor="#f2c29f"] ;
2 -> 4 ;
5 [label="(...)", fillcolor="#C0C0C0"] ;
4 -> 5 ;
100 [label="(...)", fillcolor="#C0C0C0"] ;
4 -> 100 ;
211 [label="dis <= 1.94\nsquared_error = 47.9\nsamples = 19\nvalue = 44.3", fillcolor="#e89152"] ;
1 -> 211 ;
212 [label="squared_error = 0.0\nsamples = 1\nvalue = 21.9", fillcolor="#f5d0b5"] ;
211 -> 212 ;
213 [label="ptratio <= 17.9\nsquared_error = 21.14\nsamples = 18\nvalue = 45.54", fillcolor="#e88d4d"] ;
211 -> 213 ;
214 [label="(...)", fillcolor="#C0C0C0"] ;
213 -> 214 ;
233 [label="(...)", fillcolor="#C0C0C0"] ;
213 -> 233 ;
240 [label="lstat <= 19.26\nsquared_error = 23.45\nsamples = 218\nvalue = 17.57", fillcolor="#f8dcc8"] ;
0 -> 240 [labeldistance=2.5, labelangle=-45, headlabel="False"] ;
241 [label="lstat <= 14.8\nsquared_error = 12.71\nsamples = 157\nvalue = 19.44", fillcolor="#f7d7bf"] ;
240 -> 241 ;
242 [label="rm <= 6.58\nsquared_error = 9.14\nsamples = 96\nvalue = 20.82", fillcolor="#f6d3b9"] ;
241 -> 242 ;
243 [label="(...)", fillcolor="#C0C0C0"] ;
242 -> 243 ;
378 [label="(...)", fillcolor="#C0C0C0"] ;
242 -> 378 ;
393 [label="crim <= 0.5\nsquared_error = 10.58\nsamples = 61\nvalue = 17.26", fillcolor="#f8ddc9"] ;
241 -> 393 ;
394 [label="(...)", fillcolor="#C0C0C0"] ;
393 -> 394 ;
443 [label="(...)", fillcolor="#C0C0C0"] ;
393 -> 443 ;
502 [label="nox <= 0.6\nsquared_error = 18.83\nsamples = 61\nvalue = 12.75", fillcolor="#fbe9dd"] ;
240 -> 502 ;
503 [label="rm <= 6.84\nsquared_error = 12.24\nsamples = 18\nvalue = 17.18", fillcolor="#f8ddc9"] ;
502 -> 503 ;
504 [label="(...)", fillcolor="#C0C0C0"] ;
503 -> 504 ;
535 [label="(...)", fillcolor="#C0C0C0"] ;
503 -> 535 ;
536 [label="crim <= 10.75\nsquared_error = 9.9\nsamples = 43\nvalue = 10.89", fillcolor="#fcefe5"] ;
502 -> 536 ;
537 [label="(...)", fillcolor="#C0C0C0"] ;
536 -> 537 ;
570 [label="(...)", fillcolor="#C0C0C0"] ;
536 -> 570 ;
}